{"levels":[{"inputs":[0,0,0,0.2110951541232129,0.5730477740250461],"outputs":[0,1,0,0,0,0],"biases":[0.3138018911998097,-0.4076243716567496,0.26385504216225586,0.41852936104575544,0.6929287434530753,0.18910192427561023],"weights":[[-0.7324984355334356,-0.09187659665943348,-0.7911857844070274,0.9206096188343311,0.2938807708612883,0.8457056843156865],[0.38027881965232924,0.39817307713234174,0.7242414643128052,0.13236951707916278,-0.19830628216990842,-0.02846991064143989],[0.7737326564360072,-0.02852776362921805,0.030350473426803415,-0.3345940908482232,-0.5915239131787495,0.5542458664468111],[0.59281497573948,0.14652338607121917,-0.06637855001873127,0.9747069119582634,-0.2242138608729345,0.4622607572412738],[-0.032655563473941385,0.12199504617919299,0.025221459067199525,-0.4915076962725409,0.46439515926294206,0.15880976450204765]]},{"inputs":[0,1,0,0,0,0],"outputs":[1,0,1,0],"biases":[-0.6104643010073558,-0.15926598592467833,0.8641824022516857,0.27768706427228507],"weights":[[0.15688200720267842,-0.41446774562622624,-0.06858523760827406,-0.841837843921561],[-0.252179089240244,-0.5609523172438018,0.8957029778265517,-0.8860683999883863],[0.9091742117180766,-0.23772177533570105,0.19386316567146977,-0.17009220694034566],[0.3697288909237231,-0.4747408569565148,-0.6477895365179327,-0.3087851495109821],[-0.4853703484846914,0.8288373832529476,0.8177724512230045,-0.03823316690706324],[0.052274961982499146,0.6884870878856244,-0.4869496531495212,-0.34750490443816506]]}]}